-0.0016595601084202682 0.004406489792741146 -0.0099977122142136 -0.003953348462253249 -0.0070648818922245124 -0.008153228472510274 -0.006274795794705198 -0.003088785363000885 -0.0020646509098650317 0.0007763351729669306 -0.0016161095728767442 0.0037043906163399076 -0.005910954662571666 0.007562348825581391 -0.009452247571491323 0.003409350503508145
-0.0016539040964919731 0.001173796507433505 -0.0071922610133085055 -0.00603797015615927 0.006014891596860131 0.009365231235503145 -0.003731516449104843 0.0038464523869991022 0.007527782752988134 0.00789213363164328 -0.008299115662878524 -0.009218903880157746 -0.0066033913528126395 0.007562850138559217 -0.008033062903281072 -0.0015778472756873586
0.00915778993824798 0.000663305386200244 0.003837543307675634 -0.0036896870860730316 0.003730019649909845 0.006692512080199444 -0.009634234496094527 0.005002886659978486 0.00977722037445747 0.0049633148034367355 -0.004391119608664147 0.005785588762920683 -0.00793547863721504 -0.0010421291510512706 0.00817191207781898 -0.0041277159525889276