-0.007516786292020884 -0.0006180049338426211 -0.0025952799067676968 -0.006252100934744639 0.002135701370498439 -0.003446481271058938 0.008260742047814755 0.008858998365994755 -0.004616278305068436 -0.008546785561415365 -0.006150827009014565 0.0005710211820581599 0.005105194226360697 -0.005587256158464321 -0.004751914513417772 0.007171288928987339
-0.0024221617598783104 0.0023782720722485997 -0.004823409252119141 -0.00871654220041855 0.0006037369406980715 -0.0001478357780319442 -0.007012195529355843 0.003105056098383172 0.0011225157943035428 0.0023151015977251922 -0.007119210873497084 0.00561219271698283 -0.005023419677403603 0.0006368789140709156 0.005994475227913523 -0.009414993084181944
-0.004245348947492383 0.007502624031780277 0.007393008524648364 1.9610617883017344e-05 0.0076162270412652566 0.009302728050211534 0.0064630920726978765 0.007745323387964433 -0.007784961886083875 0.002265231463948124 0.004060307638507684 0.0027813078357319535 0.006523165202503626 -0.009060943113467246 0.005690776991306687 0.004771746201553616
-0.005551682937411223 -0.004813650400299363 0.0031537701516811457 -0.003856600480670326 0.006220896265658641 -0.0007650042758082618 0.005588781486391145 0.010484263129350904 -0.003750583998062097 -0.007914294734436066 0.008015957887768505 0.0014179505286115437 0.010035125735454804 0.002984132580597773 0.01016935851814262 0.0010610343272492975
-0.00020595044247367965 -0.007247152645186619 -0.0023858063348680784 -0.010226743268379251 -0.006507309431068511 0.005220135078926135 -0.009457220234872174 -0.0020044303328046634 0.007487708462553068 0.00309075602454011 0.0038087850654295995 -0.005649300153825366 -0.0006296987096621932 0.0018798130221179049 0.010081766830482229 -0.005784351016570335
-0.005777372086761836 -0.004712396062478328 0.005501877898001015 -0.0016091137923437957 -0.008577569907152078 0.0004766953207282762 -0.005825794143033628 0.006634585356950911 -0.0038133884950087176 -0.01020814501511083 0.001858624652985265 0.00745285319631548 -0.0018492291361429172 0.005244606715096622 0.0005086101281034874 0.0009561039397917477
0.008453959173862957 0.006123522665350962 -0.008853272704007273 0.003436366434113249 -0.0004150833333425211 0.009258478053159491 -0.005636582286383632 -0.003993618316325156 -0.008129652703363766 -0.0021906898343650723 -0.007829686052034705 0.0032539021237193086 0.006591667430406876 0.004184362020011099 0.0056110610393432245 -0.0030133448179341564
0.0061839469733307294 -0.0013804188240692911 0.00697934362749376 0.0017802264130467361 -0.006847289649476016 -0.008125451049174875 -0.009698438084860803 -0.008002047096935163 -0.0005879948565353795 -0.00849451996020305 -0.009454371826220215 0.0056741024280135685 -0.0015717793842779065 0.005186566128204247 -0.0006657120621372238 -0.000861000197326737
-0.0011780489485638736 -0.0004753288411239009 0.0065667819570814166 -0.002708408175585778 0.008380460558765214 -0.008949282638604493 0.0054118262260615755 -0.006817912409454505 0.002612703760595367 -0.010560737072800131 0.0007624190161665829 -0.009357718857257722 0.00955973626419453 0.008358005802435934 0.006208035214430686 0.0084439527288445
-0.007824971988168167 -0.006801008754355024 -0.005746140918936507 0.001697098150013074 0.00840162346486097 0.010107192677399148 0.004157087087071616 0.005302225020172284 0.008427194159798895 -0.0027470554858524026 -0.005013067002792685 -0.005952120580234766 -0.007077435004789878 0.006501040284487676 -0.006776768870897753 -0.004576213636352009
0.005648895384998981 -0.003744061014573774 0.010147362776343427 -0.005416723808907386 0.0009572408630530173 -0.0034039302219737873 0.00815038295195424 -0.0020055901944580593 -0.0010878883459831824 -0.0005153025684832288 0.008767693409658307 -0.008804300125156104 0.004868643343116759 0.008068109559965404 -0.009168140055456797 0.0005782533913467282
-0.004220161014809612 0.00723440665009984 0.0016741580570015444 0.0030478302402168495 -0.0006560150268171622 0.002875868875152948 -0.004263764295321509 -0.009143353864101842 0.0017777012959338005 -0.004539613855172257 0.0003352190392508638 0.008910399571271143 -0.0009343117126106246 -0.0048019592989934825 -0.002285249562870887 0.008775774426511205
0.008004594116244277 0.006930785999477315 0.008903065984234031 -0.006191374776048221 -0.007966226319175857 -0.005147123723378098 -0.0037775311722678946 -0.005841509340824118 0.0023821107450693255 -0.0024893090128038607 0.0063169956634290874 -0.005720762537051702 0.0045685175570462895 -0.004945195800034877 0.001770452473328959 -0.0028830410888580375
-0.009601337004198704 -0.005379066055010607 0.003786332846780951 -0.0008124081334344384 0.0006674936059718785 -0.006195629371414961 0.0013485564360238079 0.010605347449558948 0.006579503714863478 0.0011182608384896207 0.009509639317284733 0.008614059706018104 0.002448835098462054 -0.009101127779818098 -0.007839322152776128 -0.008553888544219623
-0.0017000395834712047 -0.0024469999294998994 0.010007249934007544 -0.007391687478415388 0.009740629380128098 0.005656986350182419 0.006419522064237217 0.0033172353889676705 0.003615515385005363 -0.0012253940973230605 -0.009747333799328853 -0.002361730705032868 0.00037382092024113847 0.004850168050370253 -0.00034060928646892586 -0.0007143334482325867
-0.007985145747526458 -0.0097376989312696 0.00566833236985121 -0.004356078398867359 0.009973980420012263 -0.0052862788183702086 -0.0032914025748023543 0.0011461885161215344 0.005339901441824991 -0.0014897257344221424 -0.007513660723787689 -0.0031689148461364826 0.000625447945442101 0.003726573977315755 0.005691266655982933 -0.00725502373271461