-0.00424006432161227 -0.007397860517441124 -0.00960874080515859 0.0035837001704230823 -0.005766965474304482 -0.004684232936486429 -0.00017013927530578544 -0.00893355973659858 0.0014853052048036748 -0.007064407442983662 0.0017855165615080844 0.003995880965721913 -0.007954547977006737 -0.001715572791465591 0.0038922451793702993 -0.0017129889340941407
-0.008996502341389606 0.000719496012030931 0.003279812570211698 0.0003047710785184723 0.008892367286924066 0.0017359342196621057 0.008066436011924407 -0.007251316469577792 -0.007211520239347705 0.006148846741474117 -0.0020470573682635795 -0.006692202352849956 0.008548935184489586 -0.003041375668589452 0.005020483681746138 0.0045233850539364235
0.00767055012918359 0.00247501196832189 0.005022768185521536 -0.0030150445982278554 -0.004600970023133772 0.00792255758338784 -0.00143977844579606 0.009295990414154564 0.003271782650213199 0.0024349353244011054 -0.007705674636760546 0.008990498842506675 -0.0010029937159792928 0.0015710992906290957 -0.0018330224961618862 -0.005256035185089375
0.008072018331449616 0.0014751574286685856 -0.00993867428931746 0.002349886226851745 -0.003466629857713972 0.0005459948441705184 0.007717239893702827 -0.002855415250779289 0.00817365546050786 0.0024682231535321404 -0.009684169176980666 0.008589458288785726 0.0038167020821520564 0.009949763727430564 -0.0065489487502258005 -0.007253860093405521
0.008656337801769835 0.003937931141622967 -0.008676076830295124 0.00511624998654378 0.005077995937536035 0.008465324187831745 0.004228892846855257 -0.007515391330661575 -0.009599444470798742 -0.009474759286267101 -0.009434464364481553 -0.005075064939642429 0.007199322524699321 0.0007799284666666695 0.0010606812490544706 0.006844043240167396
-0.007512104926551525 -0.004414758427796889 0.0017191053463029816 0.009398904264022904 0.0012210765760535952 -0.009622220484464027 0.006011051041228231 -0.005341325137652411 0.006145056916687581 -0.002241766091371947 0.007270242932341533 0.004943146597836519 0.001123568163641152 -0.007267588136052828 -0.008797404314963845 -0.007569705314787097
-0.009104534927643097 -0.007848549869088674 -0.005481894425972707 0.004266766901076467 0.001194811705971467 -0.009744048054999198 -0.008562116342329852 0.009344716229034492 0.0013649614033847965 -0.005933114562977903 -0.004954079081944085 0.004877230631154112 -0.006092646524850942 0.0016304849524010339 0.009404640464787109 0.0069400006206317075
-0.005198616144142454 -0.0001230377557655317 0.002403034200078479 0.006586607133591874 -0.006863699924198931 -0.009623642335643402 -0.008601159498124924 -0.000273908374896376 0.002129542173798866 0.0013780497488109988 -0.0036533459553202345 0.009773036818407951 0.0015936678999356306 -0.002393869268974406 0.001023206184243026 0.004910114113244152
0.003389086940973243 -0.004700040748112089 -0.008669383127823905 -0.002591326269297632 0.002594822363644719 -0.005791685745269184 0.005053508553892884 -0.00867008104222293 -0.004790744823358675 0.006096112371766309 -0.006131908546422839 0.002789931409414263 0.0004921695826170793 0.008499466983489651 -0.00472982240721182 -0.008677352383160966
0.0047057480667969664 0.005445128596082203 0.008160236997256348 0.008646430728620763 -0.009720496342474913 -0.005307924517022686 0.0023339647238442445 0.008979515798426395 0.009006475412240785 0.0011340848019703751 0.00831153283877534 0.0028320379315009982 -0.0022010822356053035 -0.00027687928314735995 0.0020904515836684635 0.0009943840247675605
0.008528056418469973 0.00837623639592672 -0.0020985686022350503 0.0092722384665842 -0.00652041456229322 -0.00746857685139909 -0.007300018916646513 0.00011243287055973896 -0.009566551475483463 0.008960425054840461 0.006541715396069144 -0.00969890677573504 -0.006477311144976324 -0.0033554218205455954 -0.007375822054773134 0.006193238729090498
-0.003100838276545089 0.008803717605277811 0.0016442034297789651 0.007583628825825783 0.006895161091653291 0.00811267999150081 -0.000803997052754828 0.0009261257288483708 0.005975024762671561 -0.004284601957713745 -0.0001955236868909796 0.0019829198840875463 -0.009690570971106824 0.0018729354407445605 -0.0013222312207355298 0.006150636070730203
-0.003690676354096384 0.00785934174786308 0.0015610631797403729 -0.006312808543713833 0.005759056749237413 0.0022454559728584795 -0.008923416526251657 -0.0015969367872030352 0.003584328950582859 0.008373056321435894 -0.009992553488161842 0.009535896542422206 -0.00246962987667855 0.009478977235292679 0.002098562781115543 0.006580340814032357
0.0014986586076241111 0.002563091873368176 -0.004284554668308579 0.0017436557036279053 0.005000907447041534 0.00717111017492228 0.00510004146743891 0.003960334412985342 0.007292541441012941 -0.003545359085954036 0.0034151817069605224 -0.000981807558744694 -0.0023591813886412252 -0.0017804658387778132 -0.001966166678198262 -0.0036488957071876857
0.0024428159589752973 -0.0013934866533050325 0.00947996132297613 0.0035630068573976096 -0.006028130060692827 -0.001461146270906825 -0.003134677558839363 0.005951965493515364 0.007602918660361369 0.008077860102604497 0.0032538021082747434 -0.0045951210461829105 -0.004953902441622534 0.007101266076442532 0.000558534656768397 0.006046647118103732
0.0014541984370967259 0.004664418264191715 0.00038415187512704435 0.005424666437407143 0.0013776319422666718 -0.0006809694404374127 -0.0031478239908409645 -0.008636623510734184 -0.0024385638537068694 -0.008406457565612738 0.00965574822216645 -0.006367029328133647 0.006235937642435079 0.00750253974809127 0.003772506297656075 0.0013933133035356037